digraph Tree {
node [shape=box, style="filled, rounded", color="black", fontname="helvetica"] ;
edge [fontname="helvetica"] ;
0 [label="X2 <= 0.148\ngini = 0.5\nsamples = 150\nvalue = [75, 75]", fillcolor="#ffffff"] ;
1 [label="x1 <= -0.339\ngini = 0.175\nsamples = 62\nvalue = [6, 56]", fillcolor="#4ea8e8"] ;
0 -> 1 [labeldistance=2.5, labelangle=45, headlabel="True"] ;
2 [label="gini = 0.0\nsamples = 3\nvalue = [3, 0]", fillcolor="#e58139"] ;
1 -> 2 ;
3 [label="X2 <= -0.044\ngini = 0.097\nsamples = 59\nvalue = [3, 56]", fillcolor="#44a2e6"] ;
1 -> 3 ;
4 [label="gini = 0.0\nsamples = 41\nvalue = [0, 41]", fillcolor="#399de5"] ;
3 -> 4 ;
5 [label="X2 <= -0.042\ngini = 0.278\nsamples = 18\nvalue = [3, 15]", fillcolor="#61b1ea"] ;
3 -> 5 ;
6 [label="gini = 0.0\nsamples = 1\nvalue = [1, 0]", fillcolor="#e58139"] ;
5 -> 6 ;
7 [label="X2 <= 0.036\ngini = 0.208\nsamples = 17\nvalue = [2, 15]", fillcolor="#53aae8"] ;
5 -> 7 ;
8 [label="X2 <= 0.028\ngini = 0.408\nsamples = 7\nvalue = [2, 5]", fillcolor="#88c4ef"] ;
7 -> 8 ;
9 [label="X2 <= -0.003\ngini = 0.278\nsamples = 6\nvalue = [1, 5]", fillcolor="#61b1ea"] ;
8 -> 9 ;
10 [label="X2 <= -0.012\ngini = 0.444\nsamples = 3\nvalue = [1, 2]", fillcolor="#9ccef2"] ;
9 -> 10 ;
11 [label="gini = 0.0\nsamples = 2\nvalue = [0, 2]", fillcolor="#399de5"] ;
10 -> 11 ;
12 [label="gini = 0.0\nsamples = 1\nvalue = [1, 0]", fillcolor="#e58139"] ;
10 -> 12 ;
13 [label="gini = 0.0\nsamples = 3\nvalue = [0, 3]", fillcolor="#399de5"] ;
9 -> 13 ;
14 [label="gini = 0.0\nsamples = 1\nvalue = [1, 0]", fillcolor="#e58139"] ;
8 -> 14 ;
15 [label="gini = 0.0\nsamples = 10\nvalue = [0, 10]", fillcolor="#399de5"] ;
7 -> 15 ;
16 [label="x1 <= 1.498\ngini = 0.339\nsamples = 88\nvalue = [69, 19]", fillcolor="#eca470"] ;
0 -> 16 [labeldistance=2.5, labelangle=-45, headlabel="False"] ;
17 [label="X2 <= 0.529\ngini = 0.237\nsamples = 80\nvalue = [69, 11]", fillcolor="#e99559"] ;
16 -> 17 ;
18 [label="X2 <= 0.498\ngini = 0.436\nsamples = 28\nvalue = [19, 9]", fillcolor="#f1bd97"] ;
17 -> 18 ;
19 [label="x1 <= -0.512\ngini = 0.365\nsamples = 25\nvalue = [19, 6]", fillcolor="#eda978"] ;
18 -> 19 ;
20 [label="gini = 0.0\nsamples = 9\nvalue = [9, 0]", fillcolor="#e58139"] ;
19 -> 20 ;
21 [label="x1 <= 0.758\ngini = 0.469\nsamples = 16\nvalue = [10, 6]", fillcolor="#f5cdb0"] ;
19 -> 21 ;
22 [label="X2 <= 0.366\ngini = 0.245\nsamples = 7\nvalue = [1, 6]", fillcolor="#5aade9"] ;
21 -> 22 ;
23 [label="gini = 0.0\nsamples = 6\nvalue = [0, 6]", fillcolor="#399de5"] ;
22 -> 23 ;
24 [label="gini = 0.0\nsamples = 1\nvalue = [1, 0]", fillcolor="#e58139"] ;
22 -> 24 ;
25 [label="gini = 0.0\nsamples = 9\nvalue = [9, 0]", fillcolor="#e58139"] ;
21 -> 25 ;
26 [label="gini = 0.0\nsamples = 3\nvalue = [0, 3]", fillcolor="#399de5"] ;
18 -> 26 ;
27 [label="X2 <= 0.767\ngini = 0.074\nsamples = 52\nvalue = [50, 2]", fillcolor="#e68641"] ;
17 -> 27 ;
28 [label="X2 <= 0.73\ngini = 0.188\nsamples = 19\nvalue = [17, 2]", fillcolor="#e89050"] ;
27 -> 28 ;
29 [label="x1 <= 0.097\ngini = 0.105\nsamples = 18\nvalue = [17, 1]", fillcolor="#e78845"] ;
28 -> 29 ;
30 [label="gini = 0.0\nsamples = 10\nvalue = [10, 0]", fillcolor="#e58139"] ;
29 -> 30 ;
31 [label="x1 <= 0.266\ngini = 0.219\nsamples = 8\nvalue = [7, 1]", fillcolor="#e99355"] ;
29 -> 31 ;
32 [label="gini = 0.0\nsamples = 1\nvalue = [0, 1]", fillcolor="#399de5"] ;
31 -> 32 ;
33 [label="gini = 0.0\nsamples = 7\nvalue = [7, 0]", fillcolor="#e58139"] ;
31 -> 33 ;
34 [label="gini = 0.0\nsamples = 1\nvalue = [0, 1]", fillcolor="#399de5"] ;
28 -> 34 ;
35 [label="gini = 0.0\nsamples = 33\nvalue = [33, 0]", fillcolor="#e58139"] ;
27 -> 35 ;
36 [label="gini = 0.0\nsamples = 8\nvalue = [0, 8]", fillcolor="#399de5"] ;
16 -> 36 ;
}